{
 "biases": [
  [
   [
	0.00558332726359367
   ],
   [
	0.3222496509552
   ],
   [
	-0.04673475399613
   ],
   [
	-0.27480816841125
   ],
   [
	-0.070063136518
   ],
   [
	-0.04528138414025
   ],
   [
	0.396300822496414
   ],
   [
	-1.19222438335419
   ],
   [
	-0.13703252375126
   ],
   [
	-0.13030087947845
   ],
   [
	0.613319873809814
   ],
   [
	-0.43219378590584
   ],
   [
	0.330003470182419
   ],
   [
	-0.04961125180125
   ],
   [
	-0.05505408346653
   ],
   [
	-1.0015127658844
   ],
   [
	-0.31450080871582
   ],
   [
	-0.22154426574707
   ],
   [
	-0.61691135168076
   ],
   [
	0.269051939249039
   ]
  ],
  [
   [
	-0.23970280587673
   ],
   [
	-0.15868292748928
   ],
   [
	0.611957967281342
   ],
   [
	-0.04324141889811
   ],
   [
	-0.457963347435
   ]
  ]
 ],
 "layer_sizes": [
  5,
  20,
  5
 ],
 "weights": [
  [
   [
	-0.53704953193665,
	1.12580943107605,
	1.43980240821838,
	-1.74737167358398,
	-0.42850440740585
   ],
   [
	1.69647431373596,
	-0.68778347969055,
	-0.78416979312897,
	-1.46585738658905,
	0.0146035170182586
   ],
   [
	0.378782391548157,
	-1.15228641033173,
	0.30927649140358,
	1.03245747089386,
	-1.18191707134247
   ],
   [
	0.168541803956032,
	0.101742058992386,
	-0.89854294061661,
	-1.02632105350494,
	2.84524846076965
   ],
   [
	-0.72302091121674,
	-0.59430730342865,
	-0.55023121833801,
	1.62476575374603,
	0.797060132026672
   ],
   [
	-0.49342054128647,
	-0.56038838624954,
	2.44865012168884,
	-0.39430144429207,
	-0.4945402443409
   ],
   [
	1.11957895755768,
	0.267472624778748,
	-2.88002705574036,
	0.0574194453656673,
	-0.18537923693657
   ],
   [
	0.626937329769135,
	0.562463283538818,
	-0.01930815167725,
	2.39032387733459,
	-0.34206283092499
   ],
   [
	1.03369331359863,
	-2.09954905509949,
	0.777003586292267,
	-0.62985855340958,
	0.889637589454651
   ],
   [
	0.930980026721954,
	1.17695474624634,
	-0.51394462585449,
	-0.72212022542953,
	-0.18970783054829
   ],
   [
	-2.14483261108398,
	0.112467363476753,
	-1.28378283977509,
	0.705397188663483,
	0.746003389358521
   ],
   [
	-1.11514246463776,
	1.3237190246582,
	0.570730209350586,
	0.766080737113953,
	0.38017076253891
   ],
   [
	-2.18762826919556,
	0.210882171988487,
	-0.05711813643575,
	0.667784094810486,
	-0.01348399370909
   ],
   [
	0.482883810997009,
	1.62439012527466,
	-0.10255618393421,
	0.208657622337341,
	-2.56601452827454
   ],
   [
	-0.18788194656372,
	-0.3031108379364,
	-1.11985242366791,
	0.467112213373184,
	-0.21538923680782
   ],
   [
	0.675005555152893,
	2.25950264930725,
	-0.44448429346085,
	-0.91756069660187,
	1.02889358997345
   ],
   [
	0.488016754388809,
	-0.48624011874199,
	-0.35430815815926,
	1.31331932544708,
	0.194129973649979
   ],
   [
	1.44918656349182,
	-0.55272877216339,
	0.437930345535278,
	-0.22157895565033,
	-0.57525825500488
   ],
   [
	0.848681747913361,
	-1.66701006889343,
	0.334839522838593,
	1.13946044445038,
	0.785756409168243
   ],
   [
	-1.20698475837708,
	-0.35073187947273,
	0.485699266195297,
	-1.17919230461121,
	1.2834495306015
   ]
  ],
  [
   [
	-0.60295635461807,
	1.885573387146,
	0.287664026021957,
	0.184178337454796,
	-0.89753210544586,
	-0.51952028274536,
	1.24390912055969,
	1.00565946102142,
	1.30096244812012,
	1.00395834445953,
	-2.61786150932312,
	-1.20194494724274,
	-2.43480157852173,
	0.521715521812439,
	-0.33894780278206,
	0.927391290664673,
	0.463431894779205,
	1.53308594226837,
	0.984503865242004,
	-1.46718597412109
   ],
   [
	1.26205694675446,
	-0.82165157794952,
	-1.33222675323486,
	0.291876792907715,
	-0.63983732461929,
	-0.61532646417618,
	0.100636459887028,
	0.916772544384003,
	-2.30638813972473,
	1.30665111541748,
	-0.04231286793947,
	1.52259707450867,
	0.103466808795929,
	1.87674129009247,
	-0.4095441699028,
	2.69985294342041,
	-0.49647432565689,
	-0.52947396039963,
	-1.82814288139343,
	-0.45221140980721
   ],
   [
	1.70735168457031,
	-0.93649011850357,
	0.251215100288391,
	-0.97560775279999,
	-0.49494448304176,
	2.76649785041809,
	-3.29372477531433,
	0.288179814815521,
	0.995427966117859,
	-0.44770288467407,
	-1.47694039344788,
	0.865982711315155,
	-0.06943982094526,
	-0.22582632303238,
	-1.12330198287964,
	-0.2981886267662,
	-0.30004718899727,
	0.51180899143219,
	0.471171170473099,
	0.545582473278046
   ],
   [
	-2.08032059669495,
	-1.76940560340881,
	1.02612328529358,
	-1.22387361526489,
	1.73547518253326,
	-0.5467523932457,
	-0.10946545749903,
	2.7591917514801,
	-0.78391820192337,
	-0.79935091733932,
	0.64467066526413,
	0.96639883518219,
	0.617145597934723,
	0.131917729973793,
	0.333012759685516,
	-1.03698599338531,
	1.33433187007904,
	-0.27621978521347,
	1.28634250164032,
	-1.42793071269989
   ],
   [
	-0.6413134932518,
	-0.12769997119904,
	-1.39540803432465,
	3.2147274017334,
	0.770841300487518,
	-0.73420184850693,
	-0.51135349273682,
	-0.30815958976746,
	0.979609310626984,
	-0.26194694638252,
	0.622951030731201,
	0.397186428308487,
	-0.23078697919846,
	-3.17722797393799,
	-0.35472875833511,
	1.25598692893982,
	0.143095374107361,
	-0.70005571842194,
	0.877279222011566,
	1.26559233665466
   ]
  ]
 ]
}
